{
  "mean": [
    1.0254925209810908,
    20.78014815445119
  ],
  "std": [
    0.8899946431409819,
    25.657967533365856
  ],
  "W1": [
    [
      2.102047969418616,
      -0.72321295036911,
      0.655612844646714,
      0.42132981267850494,
      1.7080301295575042,
      -0.4887864724376195,
      -0.9853362427707277,
      -0.7497235529826843
    ],
    [
      2.3881670066444878,
      1.6372888979529008,
      -0.26387112127933315,
      2.108477202995431,
      -0.9411566072794837,
      0.7411001826711855,
      -0.35565118948712837,
      0.8652047692274957
    ]
  ],
  "b1": [
    0.8888938509659351,
    0.4946601343768479,
    0.5104334127249778,
    -0.005103298947707364,
    1.134088934330392,
    -0.0032328512719439206,
    -0.050998321837148974,
    -0.14753923466982727
  ],
  "W2": [
    [
      -0.23157760976921343,
      -1.1045172152459757,
      1.6008192857471932,
      0.5728890517310712
    ],
    [
      0.21660518071654675,
      -0.06380477119258983,
      -0.5457128453146762,
      1.4682814176814158
    ],
    [
      -0.5205562019903762,
      0.5918655283095199,
      0.41351945819448166,
      0.0623281505068131
    ],
    [
      0.2660875855319693,
      0.32217012597756606,
      -0.01718957606081976,
      1.1236462557788711
    ],
    [
      -1.1058392399752697,
      1.1245932504507032,
      0.21216228936631024,
      -0.726569405609494
    ],
    [
      0.3917802814330791,
      1.4568451074714024,
      -0.22266495893972094,
      0.8838644063225781
    ],
    [
      0.9683959932705939,
      -0.508489745845964,
      0.3901198089015933,
      -0.6761999575261414
    ],
    [
      -0.6143579445736781,
      -0.1896956630977714,
      0.21008344611225338,
      0.44495260267533765
    ]
  ],
  "b2": [
    1.2832783861610597,
    0.24142409934612535,
    -1.0773332343182815,
    -0.4473692511889043
  ]
}